digraph Tree {
node [shape=box] ;
0 [label="X[41] <= 0.5\ngini = 0.27\nsamples = 1470\nvalue = [1233, 237]"] ;
1 [label="X[6] <= 1.5\ngini = 0.424\nsamples = 416\nvalue = [289, 127]"] ;
0 -> 1 [labeldistance=2.5, labelangle=45, headlabel="True"] ;
2 [label="X[0] <= 33.5\ngini = 0.499\nsamples = 156\nvalue = [74, 82]"] ;
1 -> 2 ;
3 [label="X[19] <= 0.5\ngini = 0.462\nsamples = 94\nvalue = [34, 60]"] ;
2 -> 3 ;
4 [label="X[0] <= 30.5\ngini = 0.238\nsamples = 29\nvalue = [4, 25]"] ;
3 -> 4 ;
5 [label="X[4] <= 89.5\ngini = 0.142\nsamples = 26\nvalue = [2, 24]"] ;
4 -> 5 ;
6 [label="gini = 0.0\nsamples = 21\nvalue = [0, 21]"] ;
5 -> 6 ;
7 [label="X[9] <= 14.0\ngini = 0.48\nsamples = 5\nvalue = [2, 3]"] ;
5 -> 7 ;
8 [label="gini = 0.0\nsamples = 2\nvalue = [2, 0]"] ;
7 -> 8 ;
9 [label="gini = 0.0\nsamples = 3\nvalue = [0, 3]"] ;
7 -> 9 ;
10 [label="X[40] <= 0.5\ngini = 0.444\nsamples = 3\nvalue = [2, 1]"] ;
4 -> 10 ;
11 [label="gini = 0.0\nsamples = 2\nvalue = [2, 0]"] ;
10 -> 11 ;
12 [label="gini = 0.0\nsamples = 1\nvalue = [0, 1]"] ;
10 -> 12 ;
13 [label="X[3] <= 1.5\ngini = 0.497\nsamples = 65\nvalue = [30, 35]"] ;
3 -> 13 ;
14 [label="X[16] <= 5.5\ngini = 0.305\nsamples = 16\nvalue = [3, 13]"] ;
13 -> 14 ;
15 [label="gini = 0.0\nsamples = 10\nvalue = [0, 10]"] ;
14 -> 15 ;
16 [label="X[4] <= 48.5\ngini = 0.5\nsamples = 6\nvalue = [3, 3]"] ;
14 -> 16 ;
17 [label="gini = 0.0\nsamples = 2\nvalue = [2, 0]"] ;
16 -> 17 ;
18 [label="X[14] <= 4.5\ngini = 0.375\nsamples = 4\nvalue = [1, 3]"] ;
16 -> 18 ;
19 [label="gini = 0.0\nsamples = 3\nvalue = [0, 3]"] ;
18 -> 19 ;
20 [label="gini = 0.0\nsamples = 1\nvalue = [1, 0]"] ;
18 -> 20 ;
21 [label="X[19] <= 3.5\ngini = 0.495\nsamples = 49\nvalue = [27, 22]"] ;
13 -> 21 ;
22 [label="X[36] <= 0.5\ngini = 0.444\nsamples = 36\nvalue = [24, 12]"] ;
21 -> 22 ;
23 [label="X[1] <= 6.5\ngini = 0.492\nsamples = 16\nvalue = [7, 9]"] ;
22 -> 23 ;
24 [label="X[0] <= 28.5\ngini = 0.486\nsamples = 12\nvalue = [7, 5]"] ;
23 -> 24 ;
25 [label="X[29] <= 0.5\ngini = 0.245\nsamples = 7\nvalue = [6, 1]"] ;
24 -> 25 ;
26 [label="gini = 0.0\nsamples = 6\nvalue = [6, 0]"] ;
25 -> 26 ;
27 [label="gini = 0.0\nsamples = 1\nvalue = [0, 1]"] ;
25 -> 27 ;
28 [label="X[16] <= 3.5\ngini = 0.32\nsamples = 5\nvalue = [1, 4]"] ;
24 -> 28 ;
29 [label="gini = 0.0\nsamples = 4\nvalue = [0, 4]"] ;
28 -> 29 ;
30 [label="gini = 0.0\nsamples = 1\nvalue = [1, 0]"] ;
28 -> 30 ;
31 [label="gini = 0.0\nsamples = 4\nvalue = [0, 4]"] ;
23 -> 31 ;
32 [label="X[27] <= 0.5\ngini = 0.255\nsamples = 20\nvalue = [17, 3]"] ;
22 -> 32 ;
33 [label="gini = 0.0\nsamples = 14\nvalue = [14, 0]"] ;
32 -> 33 ;
34 [label="X[12] <= 0.5\ngini = 0.5\nsamples = 6\nvalue = [3, 3]"] ;
32 -> 34 ;
35 [label="gini = 0.0\nsamples = 3\nvalue = [0, 3]"] ;
34 -> 35 ;
36 [label="gini = 0.0\nsamples = 3\nvalue = [3, 0]"] ;
34 -> 36 ;
37 [label="X[27] <= 0.5\ngini = 0.355\nsamples = 13\nvalue = [3, 10]"] ;
21 -> 37 ;
38 [label="gini = 0.0\nsamples = 7\nvalue = [0, 7]"] ;
37 -> 38 ;
39 [label="X[13] <= 9.0\ngini = 0.5\nsamples = 6\nvalue = [3, 3]"] ;
37 -> 39 ;
40 [label="X[3] <= 2.5\ngini = 0.375\nsamples = 4\nvalue = [1, 3]"] ;
39 -> 40 ;
41 [label="gini = 0.0\nsamples = 1\nvalue = [1, 0]"] ;
40 -> 41 ;
42 [label="gini = 0.0\nsamples = 3\nvalue = [0, 3]"] ;
40 -> 42 ;
43 [label="gini = 0.0\nsamples = 2\nvalue = [2, 0]"] ;
39 -> 43 ;
44 [label="X[18] <= 0.5\ngini = 0.458\nsamples = 62\nvalue = [40, 22]"] ;
2 -> 44 ;
45 [label="X[39] <= 0.5\ngini = 0.499\nsamples = 25\nvalue = [12, 13]"] ;
44 -> 45 ;
46 [label="X[4] <= 37.0\ngini = 0.278\nsamples = 12\nvalue = [2, 10]"] ;
45 -> 46 ;
47 [label="gini = 0.0\nsamples = 2\nvalue = [2, 0]"] ;
46 -> 47 ;
48 [label="gini = 0.0\nsamples = 10\nvalue = [0, 10]"] ;
46 -> 48 ;
49 [label="X[5] <= 2.5\ngini = 0.355\nsamples = 13\nvalue = [10, 3]"] ;
45 -> 49 ;
50 [label="X[7] <= 2.5\ngini = 0.48\nsamples = 5\nvalue = [2, 3]"] ;
49 -> 50 ;
51 [label="gini = 0.0\nsamples = 2\nvalue = [2, 0]"] ;
50 -> 51 ;
52 [label="gini = 0.0\nsamples = 3\nvalue = [0, 3]"] ;
50 -> 52 ;
53 [label="gini = 0.0\nsamples = 8\nvalue = [8, 0]"] ;
49 -> 53 ;
54 [label="X[5] <= 1.5\ngini = 0.368\nsamples = 37\nvalue = [28, 9]"] ;
44 -> 54 ;
55 [label="gini = 0.0\nsamples = 2\nvalue = [0, 2]"] ;
54 -> 55 ;
56 [label="X[4] <= 91.5\ngini = 0.32\nsamples = 35\nvalue = [28, 7]"] ;
54 -> 56 ;
57 [label="X[8] <= 5.5\ngini = 0.225\nsamples = 31\nvalue = [27, 4]"] ;
56 -> 57 ;
58 [label="gini = 0.0\nsamples = 24\nvalue = [24, 0]"] ;
57 -> 58 ;
59 [label="X[4] <= 55.5\ngini = 0.49\nsamples = 7\nvalue = [3, 4]"] ;
57 -> 59 ;
60 [label="X[15] <= 3.5\ngini = 0.375\nsamples = 4\nvalue = [3, 1]"] ;
59 -> 60 ;
61 [label="gini = 0.0\nsamples = 3\nvalue = [3, 0]"] ;
60 -> 61 ;
62 [label="gini = 0.0\nsamples = 1\nvalue = [0, 1]"] ;
60 -> 62 ;
63 [label="gini = 0.0\nsamples = 3\nvalue = [0, 3]"] ;
59 -> 63 ;
64 [label="X[19] <= 2.5\ngini = 0.375\nsamples = 4\nvalue = [1, 3]"] ;
56 -> 64 ;
65 [label="gini = 0.0\nsamples = 1\nvalue = [1, 0]"] ;
64 -> 65 ;
66 [label="gini = 0.0\nsamples = 3\nvalue = [0, 3]"] ;
64 -> 66 ;
67 [label="X[37] <= 0.5\ngini = 0.286\nsamples = 260\nvalue = [215, 45]"] ;
1 -> 67 ;
68 [label="X[1] <= 28.5\ngini = 0.154\nsamples = 166\nvalue = [152, 14]"] ;
67 -> 68 ;
69 [label="X[13] <= 38.5\ngini = 0.136\nsamples = 163\nvalue = [151, 12]"] ;
68 -> 69 ;
70 [label="X[0] <= 24.0\ngini = 0.127\nsamples = 162\nvalue = [151, 11]"] ;
69 -> 70 ;
71 [label="gini = 0.0\nsamples = 1\nvalue = [0, 1]"] ;
70 -> 71 ;
72 [label="X[4] <= 97.5\ngini = 0.117\nsamples = 161\nvalue = [151, 10]"] ;
70 -> 72 ;
73 [label="X[14] <= 1.5\ngini = 0.097\nsamples = 156\nvalue = [148, 8]"] ;
72 -> 73 ;
74 [label="X[12] <= 0.5\ngini = 0.337\nsamples = 14\nvalue = [11, 3]"] ;
73 -> 74 ;
75 [label="X[5] <= 2.5\ngini = 0.48\nsamples = 5\nvalue = [2, 3]"] ;
74 -> 75 ;
76 [label="gini = 0.0\nsamples = 2\nvalue = [0, 2]"] ;
75 -> 76 ;
77 [label="X[8] <= 1.5\ngini = 0.444\nsamples = 3\nvalue = [2, 1]"] ;
75 -> 77 ;
78 [label="gini = 0.0\nsamples = 1\nvalue = [0, 1]"] ;
77 -> 78 ;
79 [label="gini = 0.0\nsamples = 2\nvalue = [2, 0]"] ;
77 -> 79 ;
80 [label="gini = 0.0\nsamples = 9\nvalue = [9, 0]"] ;
74 -> 80 ;
81 [label="X[5] <= 1.5\ngini = 0.068\nsamples = 142\nvalue = [137, 5]"] ;
73 -> 81 ;
82 [label="X[3] <= 1.5\ngini = 0.298\nsamples = 11\nvalue = [9, 2]"] ;
81 -> 82 ;
83 [label="gini = 0.0\nsamples = 2\nvalue = [0, 2]"] ;
82 -> 83 ;
84 [label="gini = 0.0\nsamples = 9\nvalue = [9, 0]"] ;
82 -> 84 ;
85 [label="X[8] <= 4.5\ngini = 0.045\nsamples = 131\nvalue = [128, 3]"] ;
81 -> 85 ;
86 [label="gini = 0.0\nsamples = 104\nvalue = [104, 0]"] ;
85 -> 86 ;
87 [label="X[1] <= 21.0\ngini = 0.198\nsamples = 27\nvalue = [24, 3]"] ;
85 -> 87 ;
88 [label="X[0] <= 54.5\ngini = 0.142\nsamples = 26\nvalue = [24, 2]"] ;
87 -> 88 ;
89 [label="X[15] <= 3.5\ngini = 0.077\nsamples = 25\nvalue = [24, 1]"] ;
88 -> 89 ;
90 [label="gini = 0.0\nsamples = 23\nvalue = [23, 0]"] ;
89 -> 90 ;
91 [label="X[16] <= 5.0\ngini = 0.5\nsamples = 2\nvalue = [1, 1]"] ;
89 -> 91 ;
92 [label="gini = 0.0\nsamples = 1\nvalue = [1, 0]"] ;
91 -> 92 ;
93 [label="gini = 0.0\nsamples = 1\nvalue = [0, 1]"] ;
91 -> 93 ;
94 [label="gini = 0.0\nsamples = 1\nvalue = [0, 1]"] ;
88 -> 94 ;
95 [label="gini = 0.0\nsamples = 1\nvalue = [0, 1]"] ;
87 -> 95 ;
96 [label="X[7] <= 3.5\ngini = 0.48\nsamples = 5\nvalue = [3, 2]"] ;
72 -> 96 ;
97 [label="X[18] <= 8.5\ngini = 0.444\nsamples = 3\nvalue = [1, 2]"] ;
96 -> 97 ;
98 [label="gini = 0.0\nsamples = 2\nvalue = [0, 2]"] ;
97 -> 98 ;
99 [label="gini = 0.0\nsamples = 1\nvalue = [1, 0]"] ;
97 -> 99 ;
100 [label="gini = 0.0\nsamples = 2\nvalue = [2, 0]"] ;
96 -> 100 ;
101 [label="gini = 0.0\nsamples = 1\nvalue = [0, 1]"] ;
69 -> 101 ;
102 [label="X[15] <= 3.5\ngini = 0.444\nsamples = 3\nvalue = [1, 2]"] ;
68 -> 102 ;
103 [label="gini = 0.0\nsamples = 2\nvalue = [0, 2]"] ;
102 -> 103 ;
104 [label="gini = 0.0\nsamples = 1\nvalue = [1, 0]"] ;
102 -> 104 ;
105 [label="X[40] <= 0.5\ngini = 0.442\nsamples = 94\nvalue = [63, 31]"] ;
67 -> 105 ;
106 [label="X[1] <= 12.5\ngini = 0.292\nsamples = 62\nvalue = [51, 11]"] ;
105 -> 106 ;
107 [label="X[11] <= 1.5\ngini = 0.153\nsamples = 48\nvalue = [44, 4]"] ;
106 -> 107 ;
108 [label="X[13] <= 11.0\ngini = 0.397\nsamples = 11\nvalue = [8, 3]"] ;
107 -> 108 ;
109 [label="gini = 0.0\nsamples = 8\nvalue = [8, 0]"] ;
108 -> 109 ;
110 [label="gini = 0.0\nsamples = 3\nvalue = [0, 3]"] ;
108 -> 110 ;
111 [label="X[5] <= 1.5\ngini = 0.053\nsamples = 37\nvalue = [36, 1]"] ;
107 -> 111 ;
112 [label="X[16] <= 5.5\ngini = 0.5\nsamples = 2\nvalue = [1, 1]"] ;
111 -> 112 ;
113 [label="gini = 0.0\nsamples = 1\nvalue = [1, 0]"] ;
112 -> 113 ;
114 [label="gini = 0.0\nsamples = 1\nvalue = [0, 1]"] ;
112 -> 114 ;
115 [label="gini = 0.0\nsamples = 35\nvalue = [35, 0]"] ;
111 -> 115 ;
116 [label="X[9] <= 14.5\ngini = 0.5\nsamples = 14\nvalue = [7, 7]"] ;
106 -> 116 ;
117 [label="X[15] <= 3.5\ngini = 0.375\nsamples = 8\nvalue = [2, 6]"] ;
116 -> 117 ;
118 [label="gini = 0.0\nsamples = 6\nvalue = [0, 6]"] ;
117 -> 118 ;
119 [label="gini = 0.0\nsamples = 2\nvalue = [2, 0]"] ;
117 -> 119 ;
120 [label="X[14] <= 1.0\ngini = 0.278\nsamples = 6\nvalue = [5, 1]"] ;
116 -> 120 ;
121 [label="gini = 0.0\nsamples = 1\nvalue = [0, 1]"] ;
120 -> 121 ;
122 [label="gini = 0.0\nsamples = 5\nvalue = [5, 0]"] ;
120 -> 122 ;
123 [label="X[18] <= 1.5\ngini = 0.469\nsamples = 32\nvalue = [12, 20]"] ;
105 -> 123 ;
124 [label="X[5] <= 3.5\ngini = 0.49\nsamples = 21\nvalue = [12, 9]"] ;
123 -> 124 ;
125 [label="X[1] <= 1.5\ngini = 0.444\nsamples = 18\nvalue = [12, 6]"] ;
124 -> 125 ;
126 [label="gini = 0.0\nsamples = 2\nvalue = [0, 2]"] ;
125 -> 126 ;
127 [label="X[1] <= 4.5\ngini = 0.375\nsamples = 16\nvalue = [12, 4]"] ;
125 -> 127 ;
128 [label="gini = 0.0\nsamples = 7\nvalue = [7, 0]"] ;
127 -> 128 ;
129 [label="X[0] <= 35.0\ngini = 0.494\nsamples = 9\nvalue = [5, 4]"] ;
127 -> 129 ;
130 [label="gini = 0.0\nsamples = 3\nvalue = [0, 3]"] ;
129 -> 130 ;
131 [label="X[9] <= 12.5\ngini = 0.278\nsamples = 6\nvalue = [5, 1]"] ;
129 -> 131 ;
132 [label="gini = 0.0\nsamples = 1\nvalue = [0, 1]"] ;
131 -> 132 ;
133 [label="gini = 0.0\nsamples = 5\nvalue = [5, 0]"] ;
131 -> 133 ;
134 [label="gini = 0.0\nsamples = 3\nvalue = [0, 3]"] ;
124 -> 134 ;
135 [label="gini = 0.0\nsamples = 11\nvalue = [0, 11]"] ;
123 -> 135 ;
136 [label="X[13] <= 2.5\ngini = 0.187\nsamples = 1054\nvalue = [944, 110]"] ;
0 -> 136 [labeldistance=2.5, labelangle=-45, headlabel="False"] ;
137 [label="X[36] <= 0.5\ngini = 0.442\nsamples = 88\nvalue = [59, 29]"] ;
136 -> 137 ;
138 [label="X[4] <= 58.5\ngini = 0.495\nsamples = 60\nvalue = [33, 27]"] ;
137 -> 138 ;
139 [label="X[3] <= 2.5\ngini = 0.435\nsamples = 25\nvalue = [8, 17]"] ;
138 -> 139 ;
140 [label="gini = 0.0\nsamples = 11\nvalue = [0, 11]"] ;
139 -> 140 ;
141 [label="X[15] <= 2.5\ngini = 0.49\nsamples = 14\nvalue = [8, 6]"] ;
139 -> 141 ;
142 [label="gini = 0.0\nsamples = 3\nvalue = [0, 3]"] ;
141 -> 142 ;
143 [label="X[1] <= 21.5\ngini = 0.397\nsamples = 11\nvalue = [8, 3]"] ;
141 -> 143 ;
144 [label="X[13] <= 0.5\ngini = 0.198\nsamples = 9\nvalue = [8, 1]"] ;
143 -> 144 ;
145 [label="gini = 0.0\nsamples = 1\nvalue = [0, 1]"] ;
144 -> 145 ;
146 [label="gini = 0.0\nsamples = 8\nvalue = [8, 0]"] ;
144 -> 146 ;
147 [label="gini = 0.0\nsamples = 2\nvalue = [0, 2]"] ;
143 -> 147 ;
148 [label="X[2] <= 3.5\ngini = 0.408\nsamples = 35\nvalue = [25, 10]"] ;
138 -> 148 ;
149 [label="X[14] <= 1.0\ngini = 0.342\nsamples = 32\nvalue = [25, 7]"] ;
148 -> 149 ;
150 [label="gini = 0.0\nsamples = 2\nvalue = [0, 2]"] ;
149 -> 150 ;
151 [label="X[7] <= 1.5\ngini = 0.278\nsamples = 30\nvalue = [25, 5]"] ;
149 -> 151 ;
152 [label="X[29] <= 0.5\ngini = 0.444\nsamples = 3\nvalue = [1, 2]"] ;
151 -> 152 ;
153 [label="gini = 0.0\nsamples = 1\nvalue = [1, 0]"] ;
152 -> 153 ;
154 [label="gini = 0.0\nsamples = 2\nvalue = [0, 2]"] ;
152 -> 154 ;
155 [label="X[15] <= 2.5\ngini = 0.198\nsamples = 27\nvalue = [24, 3]"] ;
151 -> 155 ;
156 [label="X[1] <= 8.0\ngini = 0.49\nsamples = 7\nvalue = [4, 3]"] ;
155 -> 156 ;
157 [label="gini = 0.0\nsamples = 4\nvalue = [4, 0]"] ;
156 -> 157 ;
158 [label="gini = 0.0\nsamples = 3\nvalue = [0, 3]"] ;
156 -> 158 ;
159 [label="gini = 0.0\nsamples = 20\nvalue = [20, 0]"] ;
155 -> 159 ;
160 [label="gini = 0.0\nsamples = 3\nvalue = [0, 3]"] ;
148 -> 160 ;
161 [label="X[28] <= 0.5\ngini = 0.133\nsamples = 28\nvalue = [26, 2]"] ;
137 -> 161 ;
162 [label="X[4] <= 34.5\ngini = 0.071\nsamples = 27\nvalue = [26, 1]"] ;
161 -> 162 ;
163 [label="X[16] <= 0.5\ngini = 0.5\nsamples = 2\nvalue = [1, 1]"] ;
162 -> 163 ;
164 [label="gini = 0.0\nsamples = 1\nvalue = [1, 0]"] ;
163 -> 164 ;
165 [label="gini = 0.0\nsamples = 1\nvalue = [0, 1]"] ;
163 -> 165 ;
166 [label="gini = 0.0\nsamples = 25\nvalue = [25, 0]"] ;
162 -> 166 ;
167 [label="gini = 0.0\nsamples = 1\nvalue = [0, 1]"] ;
161 -> 167 ;
168 [label="X[15] <= 1.5\ngini = 0.154\nsamples = 966\nvalue = [885, 81]"] ;
136 -> 168 ;
169 [label="X[19] <= 0.5\ngini = 0.37\nsamples = 53\nvalue = [40, 13]"] ;
168 -> 169 ;
170 [label="X[0] <= 44.0\ngini = 0.408\nsamples = 7\nvalue = [2, 5]"] ;
169 -> 170 ;
171 [label="gini = 0.0\nsamples = 5\nvalue = [0, 5]"] ;
170 -> 171 ;
172 [label="gini = 0.0\nsamples = 2\nvalue = [2, 0]"] ;
170 -> 172 ;
173 [label="X[18] <= 6.0\ngini = 0.287\nsamples = 46\nvalue = [38, 8]"] ;
169 -> 173 ;
174 [label="X[7] <= 1.5\ngini = 0.18\nsamples = 40\nvalue = [36, 4]"] ;
173 -> 174 ;
175 [label="X[13] <= 11.5\ngini = 0.444\nsamples = 12\nvalue = [8, 4]"] ;
174 -> 175 ;
176 [label="X[16] <= 8.0\ngini = 0.5\nsamples = 8\nvalue = [4, 4]"] ;
175 -> 176 ;
177 [label="X[17] <= 1.5\ngini = 0.32\nsamples = 5\nvalue = [4, 1]"] ;
176 -> 177 ;
178 [label="gini = 0.0\nsamples = 1\nvalue = [0, 1]"] ;
177 -> 178 ;
179 [label="gini = 0.0\nsamples = 4\nvalue = [4, 0]"] ;
177 -> 179 ;
180 [label="gini = 0.0\nsamples = 3\nvalue = [0, 3]"] ;
176 -> 180 ;
181 [label="gini = 0.0\nsamples = 4\nvalue = [4, 0]"] ;
175 -> 181 ;
182 [label="gini = 0.0\nsamples = 28\nvalue = [28, 0]"] ;
174 -> 182 ;
183 [label="X[7] <= 2.5\ngini = 0.444\nsamples = 6\nvalue = [2, 4]"] ;
173 -> 183 ;
184 [label="gini = 0.0\nsamples = 2\nvalue = [2, 0]"] ;
183 -> 184 ;
185 [label="gini = 0.0\nsamples = 4\nvalue = [0, 4]"] ;
183 -> 185 ;
186 [label="X[13] <= 39.0\ngini = 0.138\nsamples = 913\nvalue = [845, 68]"] ;
168 -> 186 ;
187 [label="X[8] <= 4.5\ngini = 0.136\nsamples = 912\nvalue = [845, 67]"] ;
186 -> 187 ;
188 [label="X[18] <= 14.5\ngini = 0.107\nsamples = 702\nvalue = [662, 40]"] ;
187 -> 188 ;
189 [label="X[38] <= 0.5\ngini = 0.103\nsamples = 697\nvalue = [659, 38]"] ;
188 -> 189 ;
190 [label="X[0] <= 43.5\ngini = 0.094\nsamples = 668\nvalue = [635, 33]"] ;
189 -> 190 ;
191 [label="X[21] <= 0.5\ngini = 0.067\nsamples = 518\nvalue = [500, 18]"] ;
190 -> 191 ;
192 [label="X[9] <= 11.5\ngini = 0.047\nsamples = 413\nvalue = [403, 10]"] ;
191 -> 192 ;
193 [label="X[4] <= 35.0\ngini = 0.131\nsamples = 57\nvalue = [53, 4]"] ;
192 -> 193 ;
194 [label="X[19] <= 7.5\ngini = 0.5\nsamples = 2\nvalue = [1, 1]"] ;
193 -> 194 ;
195 [label="gini = 0.0\nsamples = 1\nvalue = [1, 0]"] ;
194 -> 195 ;
196 [label="gini = 0.0\nsamples = 1\nvalue = [0, 1]"] ;
194 -> 196 ;
197 [label="X[1] <= 6.5\ngini = 0.103\nsamples = 55\nvalue = [52, 3]"] ;
193 -> 197 ;
198 [label="X[2] <= 1.5\ngini = 0.219\nsamples = 24\nvalue = [21, 3]"] ;
197 -> 198 ;
199 [label="gini = 0.0\nsamples = 1\nvalue = [0, 1]"] ;
198 -> 199 ;
200 [label="X[34] <= 0.5\ngini = 0.159\nsamples = 23\nvalue = [21, 2]"] ;
198 -> 200 ;
201 [label="X[17] <= 7.5\ngini = 0.091\nsamples = 21\nvalue = [20, 1]"] ;
200 -> 201 ;
202 [label="gini = 0.0\nsamples = 16\nvalue = [16, 0]"] ;
201 -> 202 ;
203 [label="X[23] <= 0.5\ngini = 0.32\nsamples = 5\nvalue = [4, 1]"] ;
201 -> 203 ;
204 [label="gini = 0.0\nsamples = 1\nvalue = [0, 1]"] ;
203 -> 204 ;
205 [label="gini = 0.0\nsamples = 4\nvalue = [4, 0]"] ;
203 -> 205 ;
206 [label="X[27] <= 0.5\ngini = 0.5\nsamples = 2\nvalue = [1, 1]"] ;
200 -> 206 ;
207 [label="gini = 0.0\nsamples = 1\nvalue = [1, 0]"] ;
206 -> 207 ;
208 [label="gini = 0.0\nsamples = 1\nvalue = [0, 1]"] ;
206 -> 208 ;
209 [label="gini = 0.0\nsamples = 31\nvalue = [31, 0]"] ;
197 -> 209 ;
210 [label="X[1] <= 22.5\ngini = 0.033\nsamples = 356\nvalue = [350, 6]"] ;
192 -> 210 ;
211 [label="X[19] <= 1.5\ngini = 0.019\nsamples = 313\nvalue = [310, 3]"] ;
210 -> 211 ;
212 [label="X[12] <= 2.5\ngini = 0.089\nsamples = 43\nvalue = [41, 2]"] ;
211 -> 212 ;
213 [label="X[16] <= 9.5\ngini = 0.048\nsamples = 41\nvalue = [40, 1]"] ;
212 -> 213 ;
214 [label="gini = 0.0\nsamples = 37\nvalue = [37, 0]"] ;
213 -> 214 ;
215 [label="X[6] <= 2.5\ngini = 0.375\nsamples = 4\nvalue = [3, 1]"] ;
213 -> 215 ;
216 [label="gini = 0.0\nsamples = 1\nvalue = [0, 1]"] ;
215 -> 216 ;
217 [label="gini = 0.0\nsamples = 3\nvalue = [3, 0]"] ;
215 -> 217 ;
218 [label="X[37] <= 0.5\ngini = 0.5\nsamples = 2\nvalue = [1, 1]"] ;
212 -> 218 ;
219 [label="gini = 0.0\nsamples = 1\nvalue = [1, 0]"] ;
218 -> 219 ;
220 [label="gini = 0.0\nsamples = 1\nvalue = [0, 1]"] ;
218 -> 220 ;
221 [label="X[14] <= 1.5\ngini = 0.007\nsamples = 270\nvalue = [269, 1]"] ;
211 -> 221 ;
222 [label="X[8] <= 0.5\ngini = 0.105\nsamples = 18\nvalue = [17, 1]"] ;
221 -> 222 ;
223 [label="X[19] <= 3.5\ngini = 0.5\nsamples = 2\nvalue = [1, 1]"] ;
222 -> 223 ;
224 [label="gini = 0.0\nsamples = 1\nvalue = [1, 0]"] ;
223 -> 224 ;
225 [label="gini = 0.0\nsamples = 1\nvalue = [0, 1]"] ;
223 -> 225 ;
226 [label="gini = 0.0\nsamples = 16\nvalue = [16, 0]"] ;
222 -> 226 ;
227 [label="gini = 0.0\nsamples = 252\nvalue = [252, 0]"] ;
221 -> 227 ;
228 [label="X[19] <= 8.5\ngini = 0.13\nsamples = 43\nvalue = [40, 3]"] ;
210 -> 228 ;
229 [label="X[8] <= 0.5\ngini = 0.05\nsamples = 39\nvalue = [38, 1]"] ;
228 -> 229 ;
230 [label="X[36] <= 0.5\ngini = 0.278\nsamples = 6\nvalue = [5, 1]"] ;
229 -> 230 ;
231 [label="gini = 0.0\nsamples = 5\nvalue = [5, 0]"] ;
230 -> 231 ;
232 [label="gini = 0.0\nsamples = 1\nvalue = [0, 1]"] ;
230 -> 232 ;
233 [label="gini = 0.0\nsamples = 33\nvalue = [33, 0]"] ;
229 -> 233 ;
234 [label="X[15] <= 2.5\ngini = 0.5\nsamples = 4\nvalue = [2, 2]"] ;
228 -> 234 ;
235 [label="gini = 0.0\nsamples = 2\nvalue = [0, 2]"] ;
234 -> 235 ;
236 [label="gini = 0.0\nsamples = 2\nvalue = [2, 0]"] ;
234 -> 236 ;
237 [label="X[1] <= 28.5\ngini = 0.141\nsamples = 105\nvalue = [97, 8]"] ;
191 -> 237 ;
238 [label="X[2] <= 4.5\ngini = 0.112\nsamples = 101\nvalue = [95, 6]"] ;
237 -> 238 ;
239 [label="X[16] <= 1.5\ngini = 0.096\nsamples = 99\nvalue = [94, 5]"] ;
238 -> 239 ;
240 [label="X[13] <= 8.0\ngini = 0.5\nsamples = 2\nvalue = [1, 1]"] ;
239 -> 240 ;
241 [label="gini = 0.0\nsamples = 1\nvalue = [1, 0]"] ;
240 -> 241 ;
242 [label="gini = 0.0\nsamples = 1\nvalue = [0, 1]"] ;
240 -> 242 ;
243 [label="X[7] <= 2.5\ngini = 0.079\nsamples = 97\nvalue = [93, 4]"] ;
239 -> 243 ;
244 [label="X[9] <= 16.5\ngini = 0.208\nsamples = 34\nvalue = [30, 4]"] ;
243 -> 244 ;
245 [label="gini = 0.0\nsamples = 20\nvalue = [20, 0]"] ;
244 -> 245 ;
246 [label="X[3] <= 2.5\ngini = 0.408\nsamples = 14\nvalue = [10, 4]"] ;
244 -> 246 ;
247 [label="gini = 0.0\nsamples = 2\nvalue = [0, 2]"] ;
246 -> 247 ;
248 [label="X[18] <= 0.5\ngini = 0.278\nsamples = 12\nvalue = [10, 2]"] ;
246 -> 248 ;
249 [label="X[30] <= 0.5\ngini = 0.444\nsamples = 3\nvalue = [1, 2]"] ;
248 -> 249 ;
250 [label="gini = 0.0\nsamples = 2\nvalue = [0, 2]"] ;
249 -> 250 ;
251 [label="gini = 0.0\nsamples = 1\nvalue = [1, 0]"] ;
249 -> 251 ;
252 [label="gini = 0.0\nsamples = 9\nvalue = [9, 0]"] ;
248 -> 252 ;
253 [label="gini = 0.0\nsamples = 63\nvalue = [63, 0]"] ;
243 -> 253 ;
254 [label="X[4] <= 85.5\ngini = 0.5\nsamples = 2\nvalue = [1, 1]"] ;
238 -> 254 ;
255 [label="gini = 0.0\nsamples = 1\nvalue = [1, 0]"] ;
254 -> 255 ;
256 [label="gini = 0.0\nsamples = 1\nvalue = [0, 1]"] ;
254 -> 256 ;
257 [label="X[0] <= 35.5\ngini = 0.5\nsamples = 4\nvalue = [2, 2]"] ;
237 -> 257 ;
258 [label="gini = 0.0\nsamples = 2\nvalue = [0, 2]"] ;
257 -> 258 ;
259 [label="gini = 0.0\nsamples = 2\nvalue = [2, 0]"] ;
257 -> 259 ;
260 [label="X[4] <= 99.5\ngini = 0.18\nsamples = 150\nvalue = [135, 15]"] ;
190 -> 260 ;
261 [label="X[7] <= 3.5\ngini = 0.17\nsamples = 149\nvalue = [135, 14]"] ;
260 -> 261 ;
262 [label="X[10] <= 3.5\ngini = 0.095\nsamples = 100\nvalue = [95, 5]"] ;
261 -> 262 ;
263 [label="X[13] <= 11.5\ngini = 0.048\nsamples = 82\nvalue = [80, 2]"] ;
262 -> 263 ;
264 [label="X[13] <= 10.5\ngini = 0.153\nsamples = 24\nvalue = [22, 2]"] ;
263 -> 264 ;
265 [label="X[4] <= 87.5\ngini = 0.083\nsamples = 23\nvalue = [22, 1]"] ;
264 -> 265 ;
266 [label="gini = 0.0\nsamples = 20\nvalue = [20, 0]"] ;
265 -> 266 ;
267 [label="X[13] <= 8.5\ngini = 0.444\nsamples = 3\nvalue = [2, 1]"] ;
265 -> 267 ;
268 [label="gini = 0.0\nsamples = 2\nvalue = [2, 0]"] ;
267 -> 268 ;
269 [label="gini = 0.0\nsamples = 1\nvalue = [0, 1]"] ;
267 -> 269 ;
270 [label="gini = 0.0\nsamples = 1\nvalue = [0, 1]"] ;
264 -> 270 ;
271 [label="gini = 0.0\nsamples = 58\nvalue = [58, 0]"] ;
263 -> 271 ;
272 [label="X[3] <= 3.5\ngini = 0.278\nsamples = 18\nvalue = [15, 3]"] ;
262 -> 272 ;
273 [label="X[4] <= 95.0\ngini = 0.124\nsamples = 15\nvalue = [14, 1]"] ;
272 -> 273 ;
274 [label="gini = 0.0\nsamples = 14\nvalue = [14, 0]"] ;
273 -> 274 ;
275 [label="gini = 0.0\nsamples = 1\nvalue = [0, 1]"] ;
273 -> 275 ;
276 [label="X[13] <= 22.5\ngini = 0.444\nsamples = 3\nvalue = [1, 2]"] ;
272 -> 276 ;
277 [label="gini = 0.0\nsamples = 2\nvalue = [0, 2]"] ;
276 -> 277 ;
278 [label="gini = 0.0\nsamples = 1\nvalue = [1, 0]"] ;
276 -> 278 ;
279 [label="X[8] <= 1.5\ngini = 0.3\nsamples = 49\nvalue = [40, 9]"] ;
261 -> 279 ;
280 [label="X[3] <= 3.5\ngini = 0.49\nsamples = 14\nvalue = [8, 6]"] ;
279 -> 280 ;
281 [label="X[1] <= 24.5\ngini = 0.48\nsamples = 10\nvalue = [4, 6]"] ;
280 -> 281 ;
282 [label="X[5] <= 3.5\ngini = 0.375\nsamples = 8\nvalue = [2, 6]"] ;
281 -> 282 ;
283 [label="gini = 0.0\nsamples = 6\nvalue = [0, 6]"] ;
282 -> 283 ;
284 [label="gini = 0.0\nsamples = 2\nvalue = [2, 0]"] ;
282 -> 284 ;
285 [label="gini = 0.0\nsamples = 2\nvalue = [2, 0]"] ;
281 -> 285 ;
286 [label="gini = 0.0\nsamples = 4\nvalue = [4, 0]"] ;
280 -> 286 ;
287 [label="X[4] <= 54.5\ngini = 0.157\nsamples = 35\nvalue = [32, 3]"] ;
279 -> 287 ;
288 [label="X[4] <= 50.5\ngini = 0.444\nsamples = 9\nvalue = [6, 3]"] ;
287 -> 288 ;
289 [label="X[18] <= 6.5\ngini = 0.245\nsamples = 7\nvalue = [6, 1]"] ;
288 -> 289 ;
290 [label="gini = 0.0\nsamples = 6\nvalue = [6, 0]"] ;
289 -> 290 ;
291 [label="gini = 0.0\nsamples = 1\nvalue = [0, 1]"] ;
289 -> 291 ;
292 [label="gini = 0.0\nsamples = 2\nvalue = [0, 2]"] ;
288 -> 292 ;
293 [label="gini = 0.0\nsamples = 26\nvalue = [26, 0]"] ;
287 -> 293 ;
294 [label="gini = 0.0\nsamples = 1\nvalue = [0, 1]"] ;
260 -> 294 ;
295 [label="X[15] <= 3.5\ngini = 0.285\nsamples = 29\nvalue = [24, 5]"] ;
189 -> 295 ;
296 [label="X[7] <= 1.5\ngini = 0.204\nsamples = 26\nvalue = [23, 3]"] ;
295 -> 296 ;
297 [label="X[9] <= 12.5\ngini = 0.5\nsamples = 4\nvalue = [2, 2]"] ;
296 -> 297 ;
298 [label="gini = 0.0\nsamples = 2\nvalue = [0, 2]"] ;
297 -> 298 ;
299 [label="gini = 0.0\nsamples = 2\nvalue = [2, 0]"] ;
297 -> 299 ;
300 [label="X[5] <= 1.5\ngini = 0.087\nsamples = 22\nvalue = [21, 1]"] ;
296 -> 300 ;
301 [label="X[1] <= 4.0\ngini = 0.5\nsamples = 2\nvalue = [1, 1]"] ;
300 -> 301 ;
302 [label="gini = 0.0\nsamples = 1\nvalue = [1, 0]"] ;
301 -> 302 ;
303 [label="gini = 0.0\nsamples = 1\nvalue = [0, 1]"] ;
301 -> 303 ;
304 [label="gini = 0.0\nsamples = 20\nvalue = [20, 0]"] ;
300 -> 304 ;
305 [label="X[1] <= 6.0\ngini = 0.444\nsamples = 3\nvalue = [1, 2]"] ;
295 -> 305 ;
306 [label="gini = 0.0\nsamples = 2\nvalue = [0, 2]"] ;
305 -> 306 ;
307 [label="gini = 0.0\nsamples = 1\nvalue = [1, 0]"] ;
305 -> 307 ;
308 [label="X[0] <= 42.0\ngini = 0.48\nsamples = 5\nvalue = [3, 2]"] ;
188 -> 308 ;
309 [label="gini = 0.0\nsamples = 2\nvalue = [0, 2]"] ;
308 -> 309 ;
310 [label="gini = 0.0\nsamples = 3\nvalue = [3, 0]"] ;
308 -> 310 ;
311 [label="X[0] <= 33.5\ngini = 0.224\nsamples = 210\nvalue = [183, 27]"] ;
187 -> 311 ;
312 [label="X[4] <= 41.5\ngini = 0.416\nsamples = 61\nvalue = [43, 18]"] ;
311 -> 312 ;
313 [label="X[2] <= 3.5\ngini = 0.42\nsamples = 10\nvalue = [3, 7]"] ;
312 -> 313 ;
314 [label="X[18] <= 1.5\ngini = 0.219\nsamples = 8\nvalue = [1, 7]"] ;
313 -> 314 ;
315 [label="gini = 0.0\nsamples = 7\nvalue = [0, 7]"] ;
314 -> 315 ;
316 [label="gini = 0.0\nsamples = 1\nvalue = [1, 0]"] ;
314 -> 316 ;
317 [label="gini = 0.0\nsamples = 2\nvalue = [2, 0]"] ;
313 -> 317 ;
318 [label="X[13] <= 7.5\ngini = 0.338\nsamples = 51\nvalue = [40, 11]"] ;
312 -> 318 ;
319 [label="X[9] <= 18.5\ngini = 0.491\nsamples = 23\nvalue = [13, 10]"] ;
318 -> 319 ;
320 [label="X[5] <= 2.5\ngini = 0.499\nsamples = 19\nvalue = [9, 10]"] ;
319 -> 320 ;
321 [label="gini = 0.0\nsamples = 5\nvalue = [0, 5]"] ;
320 -> 321 ;
322 [label="X[1] <= 3.5\ngini = 0.459\nsamples = 14\nvalue = [9, 5]"] ;
320 -> 322 ;
323 [label="X[17] <= 2.5\ngini = 0.375\nsamples = 4\nvalue = [1, 3]"] ;
322 -> 323 ;
324 [label="gini = 0.0\nsamples = 3\nvalue = [0, 3]"] ;
323 -> 324 ;
325 [label="gini = 0.0\nsamples = 1\nvalue = [1, 0]"] ;
323 -> 325 ;
326 [label="X[0] <= 31.5\ngini = 0.32\nsamples = 10\nvalue = [8, 2]"] ;
322 -> 326 ;
327 [label="gini = 0.0\nsamples = 7\nvalue = [7, 0]"] ;
326 -> 327 ;
328 [label="X[16] <= 1.5\ngini = 0.444\nsamples = 3\nvalue = [1, 2]"] ;
326 -> 328 ;
329 [label="gini = 0.0\nsamples = 1\nvalue = [1, 0]"] ;
328 -> 329 ;
330 [label="gini = 0.0\nsamples = 2\nvalue = [0, 2]"] ;
328 -> 330 ;
331 [label="gini = 0.0\nsamples = 4\nvalue = [4, 0]"] ;
319 -> 331 ;
332 [label="X[26] <= 0.5\ngini = 0.069\nsamples = 28\nvalue = [27, 1]"] ;
318 -> 332 ;
333 [label="gini = 0.0\nsamples = 24\nvalue = [24, 0]"] ;
332 -> 333 ;
334 [label="X[14] <= 4.0\ngini = 0.375\nsamples = 4\nvalue = [3, 1]"] ;
332 -> 334 ;
335 [label="gini = 0.0\nsamples = 3\nvalue = [3, 0]"] ;
334 -> 335 ;
336 [label="gini = 0.0\nsamples = 1\nvalue = [0, 1]"] ;
334 -> 336 ;
337 [label="X[3] <= 1.5\ngini = 0.114\nsamples = 149\nvalue = [140, 9]"] ;
311 -> 337 ;
338 [label="X[28] <= 0.5\ngini = 0.269\nsamples = 25\nvalue = [21, 4]"] ;
337 -> 338 ;
339 [label="X[14] <= 3.5\ngini = 0.219\nsamples = 24\nvalue = [21, 3]"] ;
338 -> 339 ;
340 [label="X[13] <= 7.5\ngini = 0.1\nsamples = 19\nvalue = [18, 1]"] ;
339 -> 340 ;
341 [label="X[23] <= 0.5\ngini = 0.5\nsamples = 2\nvalue = [1, 1]"] ;
340 -> 341 ;
342 [label="gini = 0.0\nsamples = 1\nvalue = [0, 1]"] ;
341 -> 342 ;
343 [label="gini = 0.0\nsamples = 1\nvalue = [1, 0]"] ;
341 -> 343 ;
344 [label="gini = 0.0\nsamples = 17\nvalue = [17, 0]"] ;
340 -> 344 ;
345 [label="X[12] <= 1.5\ngini = 0.48\nsamples = 5\nvalue = [3, 2]"] ;
339 -> 345 ;
346 [label="gini = 0.0\nsamples = 3\nvalue = [3, 0]"] ;
345 -> 346 ;
347 [label="gini = 0.0\nsamples = 2\nvalue = [0, 2]"] ;
345 -> 347 ;
348 [label="gini = 0.0\nsamples = 1\nvalue = [0, 1]"] ;
338 -> 348 ;
349 [label="X[23] <= 0.5\ngini = 0.077\nsamples = 124\nvalue = [119, 5]"] ;
337 -> 349 ;
350 [label="X[9] <= 20.5\ngini = 0.187\nsamples = 48\nvalue = [43, 5]"] ;
349 -> 350 ;
351 [label="X[8] <= 8.5\ngini = 0.13\nsamples = 43\nvalue = [40, 3]"] ;
350 -> 351 ;
352 [label="X[1] <= 1.5\ngini = 0.051\nsamples = 38\nvalue = [37, 1]"] ;
351 -> 352 ;
353 [label="X[12] <= 1.0\ngini = 0.375\nsamples = 4\nvalue = [3, 1]"] ;
352 -> 353 ;
354 [label="gini = 0.0\nsamples = 3\nvalue = [3, 0]"] ;
353 -> 354 ;
355 [label="gini = 0.0\nsamples = 1\nvalue = [0, 1]"] ;
353 -> 355 ;
356 [label="gini = 0.0\nsamples = 34\nvalue = [34, 0]"] ;
352 -> 356 ;
357 [label="X[16] <= 12.0\ngini = 0.48\nsamples = 5\nvalue = [3, 2]"] ;
351 -> 357 ;
358 [label="gini = 0.0\nsamples = 3\nvalue = [3, 0]"] ;
357 -> 358 ;
359 [label="gini = 0.0\nsamples = 2\nvalue = [0, 2]"] ;
357 -> 359 ;
360 [label="X[25] <= 0.5\ngini = 0.48\nsamples = 5\nvalue = [3, 2]"] ;
350 -> 360 ;
361 [label="gini = 0.0\nsamples = 3\nvalue = [3, 0]"] ;
360 -> 361 ;
362 [label="gini = 0.0\nsamples = 2\nvalue = [0, 2]"] ;
360 -> 362 ;
363 [label="gini = 0.0\nsamples = 76\nvalue = [76, 0]"] ;
349 -> 363 ;
364 [label="gini = 0.0\nsamples = 1\nvalue = [0, 1]"] ;
186 -> 364 ;
}